{"W1": [[1.2962604809463354, -0.5296529094778653, -0.46119942506043604], [-0.8760752114332464, 0.706602370452369, -1.879198476875605], [1.4246328398452295, -0.6215228319594418, 0.26049433111289333], [-0.2036100589619686, 1.1938061315445123, -1.6820978455348543], [-0.263252544709306, -0.31357906747716563, 0.9257188732272192], [-0.9733173229172823, -0.21657817167090673, -0.7918351429040916], [-0.03370484881286118, 0.40764372942926064, -0.9668030313290138], [0.8764979165546674, 0.677950665424001, 0.35213317131651944]], "b1": [[-0.030306019795412278], [0.0], [0.0], [0.0], [0.0], [-0.07656213389856083], [-0.06820991027159713], [-0.05814985604996773]], "W2": [[0.3902860984559514, -0.2769467724885382, -0.12633261632399997, -0.4033260043414089, -0.19831545755710828, 0.3314135789220268, -0.27593170080374935, -0.26242861611700163], [-0.4054694261761837, -0.35514082964391025, -0.40298509643623376, 0.06030004932583639, -0.6246080639279821, 0.1859772869808413, 0.9015766135172428, 0.3044100758785017], [-0.15029633018464714, -0.3844732131426849, -0.43291860238881424, 0.9054092920415701, -0.03384088580173192, -0.25773990349702686, 0.16056748714249208, 0.9917152047054675], [0.008857772511314303, 0.36500620125716904, 0.09368498000972521, -0.1199066289697066, -0.6275076493979641, -0.11681630648351533, -0.04216615475950482, 0.2378543205632551], [0.41949170693725246, 0.46555104065177866, 0.1427936626271294, 0.44257058213536404, -0.3771989704983264, 0.6264340776166439, 0.2564649102090044, -0.14904641755135783], [0.24425907326874852, -0.03778585651052786, 0.5658146937257135, 0.7599084082110994, 1.0927877032665807, -0.6982481677440688, -0.7220569027147947, -0.2522329314732256], [0.02629703943823846, 0.4968327459125096, 0.09907148773225348, -0.9525171153593748, -0.21174229164895295, 0.4741632513419468, 0.1796021706286665, 0.32319286316575324], [-0.12129381268280223, -0.08875968613741121, 0.08177495467218078, 0.21588533707270544, 0.08901886126828135, 0.07123797176804272, -0.32437281317287625, 0.17722762873573708]], "b2": [[-0.06492651658971549], [-0.06746593874787345], [-0.059352558051574154], [-0.056415701097041054], [0.0], [0.0], [-0.05875954544582495], [-0.011610662690845886]], "W3": [[0.12542301555656443, 0.5815286869922516, 0.5403912036724322, 0.03794580971766005, -0.2347256026890082, -0.38163424029142623, 0.1559715352414787, -0.021733592008012385], [-0.1719268377855378, 0.02179842841712347, -0.31000042197406463, 0.34901601703610946, -0.2235642823929991, 0.6122538524027494, 0.2017458208954, 0.2967892616185335], [-0.5474559228705209, 0.08469121652933405, 0.3702782255481374, -0.4768503009039673, -0.13310925300181103, 0.01630727334667928, -0.6865586601233779, 0.15757969602114588], [0.4884002125918217, -0.41238374212558576, 0.11525484175828257, -0.7116876028566976, -0.052549647761711824, -0.8710191976597171, 0.5039955039046686, 0.1431936383299802], [0.04971544333854998, -0.37237653544912547, 0.5804409006064523, 0.9316209012740562, -0.969854831492673, 0.5583710083055489, 0.760737775958082, 0.11121521062513269], [-0.5514847620914276, 0.46090734066983574, -0.14385656151875878, -0.34132464712634436, -0.6183382886677294, 0.2276266979170367, 0.35320368050503353, -0.3554473040074892], [0.3218898427296335, -0.5580140362065447, 0.3442746333233853, -0.0282495270112192, -0.1053216265459278, -0.11035173780727867, 0.38148518861577607, 0.3179101783732592], [0.3349199888297649, 0.08898423827686909, -0.026638139229465427, 0.24809022524466276, 0.0885057274590384, 0.27301012737285185, -0.21735933689031925, -1.283856919727449]], "b3": [[-0.06128984675214849], [0.0], [0.0], [-0.06221516914498118], [-0.05871164101807709], [-0.05373132026513112], [-0.05889984374598487], [-0.06758903834713968]], "W4": [[0.519412300929707, 1.0934898234871289, 0.22068222178429103, -0.05007761664174989, -0.06822237194801652, -0.059527093887404944, 0.0087047041500023, -0.5610093643734442], [-0.25854722896011395, -0.4985134138251315, 0.12439958069388525, -0.14832057618543137, 0.2476056619889802, -0.08735157987125047, 0.493167593910621, 0.10676695066772089], [1.0414607383344197, -1.0099260201473286, -0.39326024103355744, 0.5216320585445374, 1.2070529369626124, -0.04963112741951396, -0.0341987541537028, -0.04606479774292365], [0.6083380616334342, -0.2083307702929883, 0.26913485323566544, -0.08698367781201881, -0.6968142034361943, 0.23093273042607798, 0.19211212518629495, 0.7164885431137392]], "b4": [[0.0], [0.0], [-0.0608900086175053], [-0.06417475755573351]], "W5": [[-0.1364213285532869, -0.49477361532983544, 0.3420043026659942, 0.2357757451597899]], "b5": [[-0.06194453647469207]]}